{
  "defaults": {},
  "inputs": [
    {
      "name": "csv_jet1",
      "offset": 0,
      "scale": 1
    },
    {
      "name": "csv_jet2",
      "offset": 0,
      "scale": 1
    },
    {
      "name": "csv_jet3",
      "offset": 0,
      "scale": 1
    },
    {
      "name": "drmin_mu1_jet",
      "offset": 0,
      "scale": 1
    },
    {
      "name": "e_mu1",
      "offset": 0,
      "scale": 1
    },
    {
      "name": "eta_ak8jet1",
      "offset": 0,
      "scale": 1
    },
    {
      "name": "eta_ak8jet2",
      "offset": 0,
      "scale": 1
    },
    {
      "name": "eta_ak8jet3",
      "offset": 0,
      "scale": 1
    },
    {
      "name": "eta_jet1",
      "offset": 0,
      "scale": 1
    },
    {
      "name": "eta_jet2",
      "offset": 0,
      "scale": 1
    },
    {
      "name": "eta_jet3",
      "offset": 0,
      "scale": 1
    },
    {
      "name": "eta_mu1",
      "offset": 0,
      "scale": 1
    },
    {
      "name": "m_jet1",
      "offset": 0,
      "scale": 1
    },
    {
      "name": "m_jet2",
      "offset": 0,
      "scale": 1
    },
    {
      "name": "m_jet3",
      "offset": 0,
      "scale": 1
    },
    {
      "name": "met",
      "offset": 0,
      "scale": 1
    },
    {
      "name": "msd_ak8jet1",
      "offset": 0,
      "scale": 1
    },
    {
      "name": "msd_ak8jet2",
      "offset": 0,
      "scale": 1
    },
    {
      "name": "msd_ak8jet3",
      "offset": 0,
      "scale": 1
    },
    {
      "name": "n_ak8jets",
      "offset": 0,
      "scale": 1
    },
    {
      "name": "n_jets",
      "offset": 0,
      "scale": 1
    },
    {
      "name": "ndaughters_ak8jet1",
      "offset": 0,
      "scale": 1
    },
    {
      "name": "ndaughters_ak8jet2",
      "offset": 0,
      "scale": 1
    },
    {
      "name": "ndaughters_ak8jet3",
      "offset": 0,
      "scale": 1
    },
    {
      "name": "npv",
      "offset": 0,
      "scale": 1
    },
    {
      "name": "phi_ak8jet1",
      "offset": 0,
      "scale": 1
    },
    {
      "name": "phi_ak8jet2",
      "offset": 0,
      "scale": 1
    },
    {
      "name": "phi_ak8jet3",
      "offset": 0,
      "scale": 1
    },
    {
      "name": "phi_jet1",
      "offset": 0,
      "scale": 1
    },
    {
      "name": "phi_jet2",
      "offset": 0,
      "scale": 1
    },
    {
      "name": "phi_jet3",
      "offset": 0,
      "scale": 1
    },
    {
      "name": "phi_mu1",
      "offset": 0,
      "scale": 1
    },
    {
      "name": "pt_ak8jet1",
      "offset": 0,
      "scale": 1
    },
    {
      "name": "pt_ak8jet2",
      "offset": 0,
      "scale": 1
    },
    {
      "name": "pt_ak8jet3",
      "offset": 0,
      "scale": 1
    },
    {
      "name": "pt_jet1",
      "offset": 0,
      "scale": 1
    },
    {
      "name": "pt_jet2",
      "offset": 0,
      "scale": 1
    },
    {
      "name": "pt_jet3",
      "offset": 0,
      "scale": 1
    },
    {
      "name": "pt_mu1",
      "offset": 0,
      "scale": 1
    },
    {
      "name": "ptrel_mu1_jet",
      "offset": 0,
      "scale": 1
    },
    {
      "name": "reliso_mu1",
      "offset": 0,
      "scale": 1
    },
    {
      "name": "s11",
      "offset": 0,
      "scale": 1
    },
    {
      "name": "s12",
      "offset": 0,
      "scale": 1
    },
    {
      "name": "s13",
      "offset": 0,
      "scale": 1
    },
    {
      "name": "s22",
      "offset": 0,
      "scale": 1
    },
    {
      "name": "s23",
      "offset": 0,
      "scale": 1
    },
    {
      "name": "s33",
      "offset": 0,
      "scale": 1
    },
    {
      "name": "st",
      "offset": 0,
      "scale": 1
    },
    {
      "name": "stjets",
      "offset": 0,
      "scale": 1
    },
    {
      "name": "stlep",
      "offset": 0,
      "scale": 1
    },
    {
      "name": "tau1_ak8jet1",
      "offset": 0,
      "scale": 1
    },
    {
      "name": "tau1_ak8jet2",
      "offset": 0,
      "scale": 1
    },
    {
      "name": "tau1_ak8jet3",
      "offset": 0,
      "scale": 1
    },
    {
      "name": "tau2_ak8jet1",
      "offset": 0,
      "scale": 1
    },
    {
      "name": "tau2_ak8jet2",
      "offset": 0,
      "scale": 1
    },
    {
      "name": "tau2_ak8jet3",
      "offset": 0,
      "scale": 1
    },
    {
      "name": "tau3_ak8jet1",
      "offset": 0,
      "scale": 1
    },
    {
      "name": "tau3_ak8jet2",
      "offset": 0,
      "scale": 1
    },
    {
      "name": "tau3_ak8jet3",
      "offset": 0,
      "scale": 1
    }
  ],
  "layers": [
    {
      "activation": "rectified",
      "architecture": "dense",
      "bias": [
        -0.1745699644088745,
        -0.07778987288475037,
        -0.35640281438827515,
        -0.2958471179008484,
        -0.18176648020744324,
        -0.5787768363952637,
        -0.779853343963623,
        -0.5681158900260925,
        -0.3894246220588684,
        -0.7712475061416626,
        -0.5872743129730225,
        -0.32124313712120056,
        -0.5373049378395081,
        -0.74891197681427,
        -0.7594009637832642,
        -0.3735050559043884,
        -0.3412669003009796,
        -0.3304932117462158,
        -0.3632376492023468,
        -0.1745206117630005,
        -0.43394216895103455,
        -0.768539309501648,
        -0.7141941785812378,
        -0.2318761795759201,
        -0.2752465307712555,
        -0.05556922405958176,
        -0.27644938230514526,
        0.20083121955394745,
        -0.45243653655052185,
        -0.38321587443351746,
        -0.6828280091285706,
        -0.6096052527427673,
        -0.2686191499233246,
        -0.7546061873435974,
        -0.3285294473171234,
        -0.6452305912971497,
        -0.33106938004493713,
        -0.6576557755470276,
        -0.4067489206790924,
        -0.35540199279785156,
        -0.40923595428466797,
        -0.24406026303768158,
        -0.4110671877861023,
        -0.7800852656364441,
        0.10997986793518066,
        -0.08834121376276016,
        -0.39790940284729004,
        -0.6472135186195374,
        -0.2422468662261963,
        0.06120196729898453,
        -0.3268042504787445,
        -0.3251246213912964,
        -0.2658643424510956,
        -0.5913359522819519,
        -0.8462147116661072,
        -0.17733614146709442,
        -0.42212626338005066,
        -0.6004642248153687,
        -0.3501152992248535,
        -0.5734850168228149,
        0.2267073690891266,
        -0.575846254825592,
        -0.3016182780265808,
        -0.4269102215766907,
        -0.46573781967163086,
        -0.798086404800415,
        -0.24928797781467438,
        0.12874005734920502,
        -0.3598017990589142,
        -0.3148331642150879,
        -0.7782800793647766,
        -0.7592516541481018,
        -0.335726797580719,
        -0.5195698738098145,
        -0.36010122299194336,
        -0.644594132900238,
        -0.33277326822280884,
        0.24943232536315918,
        -0.7968521118164062,
        -0.7644486427307129,
        -0.0912293940782547,
        -0.3612312972545624,
        -0.12435781210660934,
        -0.7277886271476746,
        -0.6317616701126099,
        -0.17360462248325348,
        -0.4170994758605957,
        -0.6796257495880127,
        -0.36726999282836914,
        -0.6758759617805481,
        -0.13120602071285248,
        -0.20777153968811035,
        -0.4065205752849579,
        -0.4475560784339905,
        -0.26694515347480774,
        -0.6337920427322388,
        -0.7487326264381409,
        -0.7880294919013977,
        -0.13060981035232544,
        -0.052119411528110504,
        -0.32976529002189636,
        -0.8218456506729126,
        -0.4183345139026642,
        -0.25830477476119995,
        -0.3105996549129486,
        -0.19071592390537262,
        -0.46901968121528625,
        -0.8178784847259521,
        -0.5907832384109497,
        -0.7496432065963745,
        -0.5482985973358154,
        -0.4409700036048889,
        -0.5732108950614929,
        -0.7231634259223938,
        -0.42581284046173096,
        -0.6433874368667603,
        -0.3787952661514282,
        -0.3434561491012573,
        -0.5464645624160767,
        -0.46482521295547485,
        -0.35566338896751404,
        -0.7393374443054199,
        -0.2599593698978424,
        -0.2664981186389923,
        -0.5905875563621521,
        -0.13736312091350555,
        -0.39162150025367737,
        -0.009424748830497265
      ],
      "weights": [
        0.05382820963859558,
        0.045062292367219925,
        0.0028585658874362707,
        0.46672675013542175,
        -0.05057192221283913,
        0.00811792816966772,
        -0.050530560314655304,
        -0.22833707928657532,
        -0.003917202819138765,
        0.048607468605041504,
        -0.007757134269922972,
        -0.007122950162738562,
        0.03368591144680977,
        0.0655219554901123,
        -0.027977069839835167,
        0.1350969523191452,
        -0.033999353647232056,
        0.06100736930966377,
        0.4820445775985718,
        0.09660619497299194,
        0.01604858785867691,
        -0.011472396552562714,
        0.05147326737642288,
        0.5583146810531616,
        -0.006180755328387022,
        0.00673367315903306,
        -0.021580712869763374,
        -0.20663303136825562,
        -0.016173744574189186,
        0.015663668513298035,
        0.008020613342523575,
        -0.015686839818954468,
        -0.14023955166339874,
        -0.17596983909606934,
        0.376498281955719,
        0.10988809168338776,
        0.25858816504478455,
        0.0881144255399704,
        0.16610653698444366,
        0.042128998786211014,
        0.31170758605003357,
        0.07591456919908524,
        0.03813551366329193,
        -0.0012563328491523862,
        0.03364114463329315,
        -0.02986968867480755,
        0.06972482055425644,
        -0.040248360484838486,
        0.041107065975666046,
        -0.028424302116036415,
        -0.045284975320100784,
        -0.1490563303232193,
        0.3820723593235016,
        -0.0016775107942521572,
        -0.013608266599476337,
        0.45014718174934387,
        0.03386130556464195,
        0.010291196405887604,
        0.5954688191413879,
        0.0045322212390601635,
        0.00660261046141386,
        0.039767537266016006,
        0.028548656031489372,
        -0.006674033589661121,
        0.059555795043706894,
        0.07671689242124557,
        -0.3911893963813782,
        -0.0065490067936480045,
        -0.0028152307495474815,
        0.006347924005240202,
        0.0059893433935940266,
        0.014017485082149506,
        0.03704526275396347,
        0.08714277297258377,
        -0.052302390336990356,
        -0.290275514125824,
        -0.1479349285364151,
        -0.04280443117022514,
        -0.19710685312747955,
        -0.038169603794813156,
        -0.20457184314727783,
        -0.10895083844661713,
        -0.027376186102628708,
        -0.01383906975388527,
        -0.06953824311494827,
        0.0644490122795105,
        -0.08767813444137573,
        0.003167514456436038,
        0.016119536012411118,
        0.006115383934229612,
        0.0074067446403205395,
        -0.05445948243141174,
        0.053872089833021164,
        0.2039550095796585,
        0.15865814685821533,
        -0.2029665857553482,
        -0.08409854024648666,
        0.03208169341087341,
        -0.008800593204796314,
        1.3030405044555664,
        0.0717904344201088,
        0.0036437425296753645,
        0.0015550677198916674,
        0.08605093508958817,
        0.002071428345516324,
        0.09672526270151138,
        -0.007317560724914074,
        0.04966958984732628,
        -0.08424605429172516,
        -0.13006997108459473,
        -0.1735125482082367,
        0.11042898893356323,
        -0.021657871082425117,
        -0.013263962231576443,
        0.06017972156405449,
        -0.1336708813905716,
        0.029719648882746696,
        0.21094802021980286,
        0.006675612647086382,
        -0.001987053081393242,
        0.021515721455216408,
        -0.0013172163162380457,
        -0.009767645038664341,
        0.001493255840614438,
        -0.011031927540898323,
        -0.1948680579662323,
        0.005381106398999691,
        -0.0020789264235645533,
        -0.0072210365906357765,
        -0.004050747025758028,
        0.005071116145700216,
        0.006382651627063751,
        0.0019535173196345568,
        0.006103419698774815,
        0.016067562624812126,
        0.033765602856874466,
        0.1737205684185028,
        0.0008561096037738025,
        -0.00369401928037405,
        0.002603409579023719,
        0.024421805515885353,
        0.315449059009552,
        -0.005684284958988428,
        0.0033364128321409225,
        0.01221685204654932,
        -0.2452552318572998,
        0.0004434270958881825,
        -0.0017945581348612905,
        0.003472207812592387,
        -0.006933921482414007,
        0.005337195936590433,
        -0.014308957383036613,
        0.2906833589076996,
        -0.021426985040307045,
        -0.00031878333538770676,
        -0.0011154910316690803,
        0.008036133833229542,
        0.009633037261664867,
        -1.3040075302124023,
        0.07283231616020203,
        -0.006770197302103043,
        2.5289744371548295e-05,
        0.0711132138967514,
        -0.0012107300572097301,
        0.0960593968629837,
        0.06610030680894852,
        -0.035017017275094986,
        0.0034659362863749266,
        -0.02017497643828392,
        0.00571619626134634,
        0.3771652579307556,
        0.024362357333302498,
        -0.03892703354358673,
        0.14095036685466766,
        -0.01929905079305172,
        0.008713426068425179,
        0.3808051347732544,
        0.0008153707021847367,
        -0.01529650203883648,
        -0.017465416342020035,
        0.03497939929366112,
        0.0019825887866318226,
        0.018763745203614235,
        0.03735020384192467,
        -0.0457608625292778,
        -0.02461555227637291,
        0.033739570528268814,
        0.008904329501092434,
        -0.01381570752710104,
        0.014201857149600983,
        0.19137628376483917,
        0.13538436591625214,
        -0.14724810421466827,
        -0.19403491914272308,
        -0.1484299600124359,
        0.009629998356103897,
        0.04929749667644501,
        -0.01608627662062645,
        0.056093692779541016,
        0.20621292293071747,
        0.1538572907447815,
        -0.00363781675696373,
        -0.0009880790021270514,
        0.008230267092585564,
        -0.04570668190717697,
        0.0004803873598575592,
        -0.0038075170014053583,
        -0.00017687348008621484,
        -0.006855362094938755,
        -0.10340063273906708,
        0.18706168234348297,
        0.06396999955177307,
        0.4329066872596741,
        -0.6144528985023499,
        -0.24234238266944885,
        0.03236833214759827,
        -0.018605850636959076,
        0.2340574562549591,
        0.124629445374012,
        0.0021043485030531883,
        -0.0006097171572037041,
        0.12813551723957062,
        0.008331206627190113,
        0.16196481883525848,
        -0.0598347932100296,
        -0.1577708125114441,
        -0.07497257739305496,
        -0.05918392166495323,
        -0.22525882720947266,
        -0.011080363765358925,
        -0.05467119812965393,
        0.09874637424945831,
        0.13370588421821594,
        -0.06446269154548645,
        -0.08410711586475372,
        -0.060624927282333374,
        -0.07681822031736374,
        -0.1083124503493309,
        -0.09564342349767685,
        -0.038278453052043915,
        -0.07193005084991455,
        -0.01317326445132494,
        -0.0038511035963892937,
        -0.028297604992985725,
        0.01442101038992405,
        0.005766784306615591,
        0.008749161846935749,
        0.00444900244474411,
        -0.04024737328290939,
        -0.10415897518396378,
        -0.10813558846712112,
        -0.037713296711444855,
        -0.10316243767738342,
        0.05902637168765068,
        0.22997114062309265,
        -0.09361754357814789,
        0.15854580700397491,
        -0.012094815261662006,
        0.03358415886759758,
        0.0555977001786232,
        0.015650611370801926,
        -0.0021081049926579,
        -0.02269475720822811,
        -0.08410776406526566,
        -0.003400606568902731,
        0.001964232651516795,
        0.0013188417069613934,
        -0.00011447178985690698,
        0.18609492480754852,
        -0.08852118253707886,
        0.06616570800542831,
        -0.2754446864128113,
        -0.2144610434770584,
        0.05209420248866081,
        -0.03943711519241333,
        0.02946806699037552,
        -0.4047325551509857,
        0.049421701580286026,
        0.0025953580625355244,
        0.0053723338060081005,
        0.04907018691301346,
        -0.004119050223380327,
        0.05661555007100105,
        0.12747587263584137,
        0.3423965871334076,
        0.04307352751493454,
        0.038371797651052475,
        -0.03396536037325859,
        -0.005366699304431677,
        -0.011941167525947094,
        0.08566074818372726,
        0.16147248446941376,
        0.0278034470975399,
        -0.03294110298156738,
        0.00507658626884222,
        -0.012036589905619621,
        1.3605114221572876,
        -0.017155136913061142,
        -0.00894610770046711,
        -0.004768937360495329,
        -0.00031056252191774547,
        0.00018058315617963672,
        -0.0047537172213196754,
        -0.0029504704289138317,
        -0.00291642127558589,
        -7.919653580756858e-05,
        -0.0032424372620880604,
        -0.0068897376768291,
        -0.00753437215462327,
        -0.010278633795678616,
        0.0024390711914747953,
        -0.03393107280135155,
        -0.021110013127326965,
        -0.08081656694412231,
        -0.0872797891497612,
        0.009242492727935314,
        -0.004117043688893318,
        -0.008556302636861801,
        -0.004160779062658548,
        -0.00348806194961071,
        -0.006343512330204248,
        0.005396285094320774,
        0.00022680885740555823,
        0.0003964169882237911,
        -0.004053148441016674,
        0.0029571056365966797,
        -0.002217542380094528,
        0.05541769042611122,
        0.0441700741648674,
        0.007592472713440657,
        -0.09623638540506363,
        -0.01829708181321621,
        0.005274103954434395,
        0.10704822838306427,
        0.00022495634038932621,
        -0.28904101252555847,
        0.08281884342432022,
        0.001092499471269548,
        -0.0005609164363704622,
        0.08125149458646774,
        0.00387850240804255,
        0.10939861834049225,
        0.07307267189025879,
        0.03575052693486214,
        -0.11340910196304321,
        0.015953967347741127,
        0.028761155903339386,
        0.10574787110090256,
        -0.05371497571468353,
        -0.009198518469929695,
        -0.088514044880867,
        0.056704141199588776,
        -0.006133056245744228,
        0.05533351004123688,
        -0.0006095670396462083,
        -0.0036841901019215584,
        -0.0019438356393948197,
        -0.4029789865016937,
        -0.002439910778775811,
        -0.004643479827791452,
        0.02560625970363617,
        -0.023670539259910583,
        -0.013957841321825981,
        0.02824472263455391,
        -0.010094733908772469,
        -0.004366492386907339,
        0.10389530658721924,
        0.08835486322641373,
        0.08242199569940567,
        -0.08976791054010391,
        -0.12496409565210342,
        -0.0462677925825119,
        -0.009280313737690449,
        -0.1027403324842453,
        0.000180884831934236,
        0.06609299778938293,
        0.08962979912757874,
        0.024719439446926117,
        0.006485959980636835,
        -0.008823595941066742,
        -0.00667589483782649,
        -0.01052367314696312,
        0.0016228994354605675,
        0.00029067695140838623,
        -0.0024413575883954763,
        -0.005078374408185482,
        0.12149976938962936,
        -0.08339974284172058,
        0.17667755484580994,
        0.017739716917276382,
        0.05770448222756386,
        -0.1392902135848999,
        0.005577444098889828,
        -0.250577837228775,
        0.09556210041046143,
        0.0059688943438231945,
        0.008180391974747181,
        0.0030288638081401587,
        0.0006000815192237496,
        -0.004066806752234697,
        0.010050219483673573,
        -0.16238421201705933,
        -0.23099520802497864,
        -0.0032475569751113653,
        -0.059813424944877625,
        0.10332827270030975,
        0.005866052117198706,
        -0.0621725432574749,
        -0.039013270288705826,
        -0.06426060944795609,
        0.038420356810092926,
        -0.029272213578224182,
        0.08202008903026581,
        -0.0416618287563324,
        -0.0666496679186821,
        -0.07746055722236633,
        0.009596370160579681,
        0.011302218772470951,
        -0.0026163854636251926,
        0.014787198044359684,
        -0.01665838435292244,
        0.004843834787607193,
        -0.014693762175738811,
        0.009078377857804298,
        -0.014321228489279747,
        -0.12074016034603119,
        -0.5765818953514099,
        -0.18248878419399261,
        -0.3961424231529236,
        0.06789909303188324,
        0.010250665247440338,
        -0.03468345105648041,
        -0.08474081754684448,
        -0.016998086124658585,
        0.03135768696665764,
        -0.042997367680072784,
        0.010527774691581726,
        0.031057506799697876,
        -0.021355269476771355,
        -0.003644595853984356,
        0.04513894394040108,
        -0.009146856144070625,
        -0.030684197321534157,
        0.004211884457617998,
        0.018545379862189293,
        0.1077844500541687,
        0.12276020646095276,
        0.08015255630016327,
        -0.09530491381883621,
        0.23828385770320892,
        0.2062874734401703,
        0.005561742000281811,
        0.0022720610722899437,
        -0.15859434008598328,
        -0.07172734290361404,
        -0.005695697385817766,
        8.047556184465066e-05,
        -0.0852733626961708,
        0.01114765927195549,
        -0.091853566467762,
        0.17045754194259644,
        -0.015032043680548668,
        0.0024799760431051254,
        -0.06595316529273987,
        -0.07825984805822372,
        0.12470672279596329,
        0.01455776859074831,
        0.061491213738918304,
        0.0652034655213356,
        0.032182108610868454,
        0.027559032663702965,
        0.00457899970933795,
        -0.009559428319334984,
        -0.022459248080849648,
        -0.013156970962882042,
        0.09906012564897537,
        0.012579260393977165,
        0.007958798669278622,
        0.013379208743572235,
        -0.12260627746582031,
        -0.020474057644605637,
        -0.0031142067164182663,
        0.01499917358160019,
        0.0106417927891016,
        0.0712130144238472,
        0.02755652740597725,
        0.04537835344672203,
        -0.3120687007904053,
        -0.10661591589450836,
        -0.06387489289045334,
        0.02333030104637146,
        -0.014639007858932018,
        -0.038286276161670685,
        -0.050449348986148834,
        0.03800777718424797,
        0.2913755774497986,
        0.00847594253718853,
        0.016677023842930794,
        -0.025623802095651627,
        -0.17755694687366486,
        -0.0024183474015444517,
        -0.021768467500805855,
        0.020436156541109085,
        -0.04047369956970215,
        0.0876256674528122,
        0.0465686172246933,
        0.15541799366474152,
        0.26168811321258545,
        -0.4012809991836548,
        -0.10343021154403687,
        -0.10998950898647308,
        -0.06366362422704697,
        0.3372079133987427,
        -0.006574118975549936,
        0.02263738587498665,
        -0.0021743071265518665,
        -0.00031731280614621937,
        0.005103025585412979,
        -0.021821154281497,
        -0.17020651698112488,
        -0.1721341460943222,
        -0.087384894490242,
        0.002422000514343381,
        -0.0982997938990593,
        0.2350504994392395,
        0.010660768486559391,
        -0.018737662583589554,
        -0.011406474746763706,
        0.03808674216270447,
        0.07975319027900696,
        0.213727205991745,
        0.003943987190723419,
        0.002505917102098465,
        0.005923664662986994,
        -0.42483195662498474,
        0.007084304466843605,
        0.0008266226504929364,
        0.006417690776288509,
        -0.16733235120773315,
        0.005367746111005545,
        0.006334617733955383,
        0.004682090133428574,
        -0.021846257150173187,
        -0.02294560708105564,
        0.025860728695988655,
        0.02142099291086197,
        -0.04339415207505226,
        0.045776501297950745,
        0.03571219742298126,
        0.1498420238494873,
        -0.019585048779845238,
        -0.07007640600204468,
        0.010054979473352432,
        0.03139257803559303,
        0.1429213434457779,
        0.00103481556288898,
        0.0031678269151598215,
        0.005539222154766321,
        -0.14470157027244568,
        -0.02100171335041523,
        -0.0004408949171192944,
        0.0011662489268928766,
        -0.003654992673546076,
        -0.01617143675684929,
        -0.06553157418966293,
        0.12494386732578278,
        -0.015170872211456299,
        -0.016046889126300812,
        -0.008443351835012436,
        0.04206978157162666,
        -0.594356119632721,
        0.007837366312742233,
        -0.06154150888323784,
        -0.0061454372480511665,
        -0.0015809700125828385,
        -0.05379438027739525,
        0.010122669860720634,
        -0.052597444504499435,
        0.08627872914075851,
        0.02976590394973755,
        -0.012013159692287445,
        -0.042907629162073135,
        -0.0161496140062809,
        0.16320228576660156,
        -0.041348788887262344,
        -0.07563961297273636,
        0.03244594857096672,
        0.05461012199521065,
        0.06716360151767731,
        0.3442370593547821,
        -0.004944159649312496,
        -0.0017832915764302015,
        0.0002314345765626058,
        -0.4238733947277069,
        0.018452906981110573,
        0.0007253765361383557,
        -0.010252188891172409,
        -0.4254069924354553,
        -0.016944408416748047,
        0.02704935520887375,
        0.008200625889003277,
        -0.0038065039552748203,
        0.11074790358543396,
        0.18615475296974182,
        0.09398483484983444,
        -0.042208049446344376,
        -0.08820698410272598,
        -0.12362020462751389,
        0.4035477638244629,
        0.1138908639550209,
        -0.061265941709280014,
        -0.0076729110442101955,
        -0.0018907905323430896,
        0.6222357153892517,
        0.015228954143822193,
        0.005611889064311981,
        -0.0019774404354393482,
        -0.3381050229072571,
        -0.006495884153991938,
        -0.005261964164674282,
        -0.002142804441973567,
        0.006115965079516172,
        0.07000155001878738,
        0.06353044509887695,
        0.49363309144973755,
        -0.025124503299593925,
        -0.11990978568792343,
        -0.15730856359004974,
        0.12656690180301666,
        -0.5046548843383789,
        0.05238566920161247,
        -0.04518632963299751,
        0.0058545214124023914,
        -0.006862356327474117,
        -0.03407565876841545,
        0.0009894110262393951,
        -0.039076972752809525,
        -0.09739512205123901,
        1.8692712728807237e-06,
        -0.0879744365811348,
        -0.21042099595069885,
        -0.059876784682273865,
        0.4754113256931305,
        -0.057396408170461655,
        -0.0037584269884973764,
        0.4159983694553375,
        0.07451139390468597,
        0.03384818136692047,
        0.4077729284763336,
        0.8985614776611328,
        -0.022442147135734558,
        1.14432692527771,
        -0.023508934304118156,
        -0.0017362789949402213,
        -0.0011173378443345428,
        0.004365419503301382,
        -0.03162004426121712,
        0.002378572477027774,
        -0.0009340777178294957,
        0.0025556606706231833,
        -0.0027304282411932945,
        0.03434649109840393,
        -0.016509680077433586,
        -0.14606909453868866,
        0.04251592978835106,
        0.0032332392875105143,
        -0.003604597644880414,
        0.033042941242456436,
        0.0029012244194746017,
        0.01378244161605835,
        -0.03119574673473835,
        -0.036450792104005814,
        0.007956421934068203,
        -0.0032892951276153326,
        0.0005528326728381217,
        -0.011216332204639912,
        -0.0629316195845604,
        0.005889737047255039,
        0.0023131100460886955,
        0.007770623546093702,
        0.0020769236143678427,
        0.0011562166037037969,
        0.0684935674071312,
        0.09723282605409622,
        -0.4282642602920532,
        -0.043172553181648254,
        0.014401271939277649,
        -0.011220382526516914,
        0.0017919997917488217,
        0.08262952417135239,
        0.09757247567176819,
        0.002254913095384836,
        0.0016246839659288526,
        0.10624081641435623,
        0.0013828908558934927,
        0.11513546854257584,
        0.1327592134475708,
        0.2657749652862549,
        0.009510744363069534,
        0.05159391090273857,
        0.02815440110862255,
        0.022073756903409958,
        0.09676481038331985,
        0.04033127427101135,
        0.07488317042589188,
        -0.13598284125328064,
        -0.07773005217313766,
        0.10821554064750671,
        -0.012729279696941376,
        1.5599831342697144,
        -0.006506044417619705,
        -0.011581817641854286,
        -0.004071298986673355,
        0.0015252733137458563,
        0.0015516409184783697,
        0.00893730390816927,
        0.0008861810783855617,
        0.001128000090830028,
        0.003967863507568836,
        6.116621079854667e-05,
        0.011346121318638325,
        -0.0018287347629666328,
        -0.002566676354035735,
        0.021833671256899834,
        0.0026336777955293655,
        0.021062498912215233,
        0.044172365218400955,
        -0.0053018308244645596,
        0.016870521008968353,
        0.005969098769128323,
        0.0022456927690654993,
        0.00596901448443532,
        -0.001561623183079064,
        0.0030537419952452183,
        5.8602949138730764e-05,
        -0.033637791872024536,
        -0.0027101493906229734,
        -0.00014784102677367628,
        -0.001347500248812139,
        -0.00366257899440825,
        -0.002792461309581995,
        0.01759171299636364,
        0.016389917582273483,
        -0.014977412298321724,
        0.01161233987659216,
        0.010756425559520721,
        0.07616759091615677,
        -0.001174125587567687,
        -0.01227046363055706,
        0.06227220222353935,
        -0.0009167061652988195,
        -0.00033147886279039085,
        0.06217578426003456,
        0.0017128648469224572,
        0.08429086208343506,
        -0.12014561891555786,
        0.07696627825498581,
        -0.061784688383340836,
        0.003199670696631074,
        0.006877039093524218,
        -0.09740018844604492,
        0.03136682137846947,
        0.02492150105535984,
        0.09004675596952438,
        -0.027819067239761353,
        -0.03064073622226715,
        -0.02559776045382023,
        0.005083815660327673,
        -0.0076823243871331215,
        0.10224872827529907,
        -0.40807709097862244,
        -0.006795004475861788,
        -0.0032020595390349627,
        -0.007213486824184656,
        -0.00282267271541059,
        0.00759710930287838,
        0.019076397642493248,
        -0.011403179727494717,
        -0.008936748839914799,
        -0.021893514320254326,
        0.026389291509985924,
        -0.04007840156555176,
        -0.044283993542194366,
        0.021907225251197815,
        0.038238685578107834,
        -0.014435650780797005,
        0.021594393998384476,
        -0.09106884151697159,
        -0.0023018920328468084,
        0.027662191540002823,
        -0.0048747374676167965,
        0.009323952719569206,
        0.003503155894577503,
        0.006755098234862089,
        -0.00024365079298149794,
        0.003467038506641984,
        0.0007612784393131733,
        -0.006047711241990328,
        0.001800253172405064,
        -0.005794493947178125,
        -0.02365797758102417,
        0.04581400752067566,
        0.1212996244430542,
        0.004567348398268223,
        0.05575057864189148,
        -0.10085178911685944,
        -0.34860798716545105,
        0.006636440753936768,
        0.09920154511928558,
        0.008420328609645367,
        0.0026343127246946096,
        0.10273588448762894,
        0.0036365024279803038,
        0.14074793457984924,
        0.015424857847392559,
        -0.08017390221357346,
        0.0900638997554779,
        -0.058853063732385635,
        -0.026717960834503174,
        0.012370646931231022,
        -0.10540475696325302,
        -0.18673273921012878,
        -0.04273838549852371,
        0.10824163258075714,
        0.16667409241199493,
        0.0773984044790268,
        -0.004136962350457907,
        -0.01649191789329052,
        0.0021834501530975103,
        -0.3838469684123993,
        -0.01849411614239216,
        -0.0023437589406967163,
        0.0018002717988565564,
        -0.04695877432823181,
        0.00579047529026866,
        0.0015517224092036486,
        -0.02554662525653839,
        0.008682794868946075,
        -0.02278478629887104,
        0.0776849314570427,
        0.02323271706700325,
        -0.03805107623338699,
        0.031352799385786057,
        -0.10317423194646835,
        0.09517902135848999,
        0.03245147317647934,
        -0.12893123924732208,
        0.005969008430838585,
        -0.01704488880932331,
        0.027118781581521034,
        0.001024834462441504,
        0.0017790383426472545,
        0.009250017814338207,
        -0.04631606116890907,
        0.004268334247171879,
        0.0013459980254992843,
        -0.005751965567469597,
        0.005098872352391481,
        -0.0779218003153801,
        0.03158625215291977,
        0.09897547215223312,
        0.05871215835213661,
        -0.04807822406291962,
        0.007181087043136358,
        0.03084777668118477,
        -0.5028911828994751,
        0.0018328619189560413,
        0.013854973949491978,
        0.009355311281979084,
        0.004332420881837606,
        0.004560965579003096,
        0.0017589764902368188,
        0.018955079838633537,
        0.10057356208562851,
        0.004909904673695564,
        0.009204940870404243,
        -0.02777758426964283,
        -0.17085832357406616,
        -0.014222548343241215,
        -0.05005965754389763,
        0.03554683178663254,
        0.15534721314907074,
        0.05846124142408371,
        0.08259447664022446,
        0.0709691047668457,
        0.21953795850276947,
        0.217035174369812,
        0.004773159045726061,
        -0.04352014884352684,
        -0.02652202732861042,
        0.0038562321569770575,
        0.0023051677271723747,
        -0.11139319837093353,
        0.0016494725132361054,
        0.00497343298047781,
        0.005360331851989031,
        -0.0011668181978166103,
        0.0057916599325835705,
        0.008073154836893082,
        -0.005876871291548014,
        0.027233386412262917,
        -0.020919114351272583,
        0.05048314854502678,
        0.17515593767166138,
        0.022389166057109833,
        0.02633640356361866,
        -0.008269933983683586,
        0.05788901075720787,
        0.05788763239979744,
        -0.0038793848361819983,
        0.0031118199694901705,
        0.004347567446529865,
        -0.11979085206985474,
        -0.004872003570199013,
        0.0005794515600427985,
        0.000784336356446147,
        -0.0013074827147647738,
        -0.06941147148609161,
        -0.08266010880470276,
        0.24886488914489746,
        -0.3679731488227844,
        -0.08486606180667877,
        -0.018790435045957565,
        -0.022005906328558922,
        0.011715319938957691,
        -1.0679208040237427,
        -0.06537698954343796,
        0.0024276403710246086,
        -0.0003701114619616419,
        -0.06222571060061455,
        -5.795038305222988e-06,
        -0.0932549461722374,
        0.24993355572223663,
        0.1046394631266594,
        0.04177616164088249,
        0.032116085290908813,
        0.014960010536015034,
        0.2578960061073303,
        0.001998836174607277,
        0.05080623924732208,
        0.06723882257938385,
        -0.006183922756463289,
        -0.055705249309539795,
        0.3198530972003937,
        -0.02475104108452797,
        1.1957659721374512,
        0.978744387626648,
        -0.027687054127454758,
        -0.006594518199563026,
        0.0010516562033444643,
        0.002231551567092538,
        -0.026932457461953163,
        -0.008214736357331276,
        0.005740093067288399,
        -0.006773422006517649,
        0.000595616817008704,
        0.003262073267251253,
        -0.01774016208946705,
        -0.11697041243314743,
        -0.003495420329272747,
        0.004759874660521746,
        0.016615716740489006,
        -0.034151267260313034,
        -0.010370082221925259,
        0.0004322475870139897,
        0.011392408050596714,
        -0.002032260876148939,
        0.046000707894563675,
        -0.007486292626708746,
        -0.00903293862938881,
        -0.015455815009772778,
        -0.04558955878019333,
        0.01373228058218956,
        -0.0033459914848208427,
        -0.00051172508392483,
        0.0035349612589925528,
        0.007406839169561863,
        -0.002040787134319544,
        0.03130015358328819,
        -0.21410050988197327,
        -0.08388788998126984,
        0.04337041452527046,
        0.04985122010111809,
        -0.006073204334825277,
        0.055740367621183395,
        -0.01344288606196642,
        -0.0018370532197877765,
        0.00020763216889463365,
        -0.0061891390942037106,
        0.0006889321957714856,
        -0.01715042069554329,
        0.18231570720672607,
        0.11961205303668976,
        -0.04686577245593071,
        0.01985086128115654,
        -0.0017291721887886524,
        0.11578477919101715,
        0.04586867243051529,
        0.018455639481544495,
        0.12564004957675934,
        -0.05276508256793022,
        -0.01702664978802204,
        -0.03409027308225632,
        0.0319787859916687,
        0.05296466872096062,
        0.0656491294503212,
        0.08813793212175369,
        0.09691962599754333,
        0.017904007807374,
        -0.06875644624233246,
        -0.37876662611961365,
        -0.1559828668832779,
        0.00234525790438056,
        0.09458359330892563,
        0.13591565191745758,
        0.06701665371656418,
        0.1283729374408722,
        0.05843087658286095,
        -0.22877532243728638,
        -0.016479795798659325,
        -0.16643017530441284,
        0.38061392307281494,
        -0.05048029497265816,
        -0.10688653588294983,
        0.018669195473194122,
        0.10723299533128738,
        0.4635753333568573,
        0.00329032726585865,
        -0.01498641911894083,
        -0.04059084132313728,
        -0.09964887797832489,
        -0.023898154497146606,
        -0.013772938400506973,
        0.03975393995642662,
        0.010053570382297039,
        -0.06644940376281738,
        0.0993993952870369,
        0.29380252957344055,
        0.3668147921562195,
        -0.243133544921875,
        -0.20297008752822876,
        -0.17750130593776703,
        -0.12950000166893005,
        0.43083980679512024,
        0.03242679312825203,
        -0.0325632207095623,
        0.004873503465205431,
        0.01832450181245804,
        -0.05134119093418121,
        -0.04541083425283432,
        -0.010873858816921711,
        -0.06222152337431908,
        -0.1250496655702591,
        -0.1255837380886078,
        -0.07258117944002151,
        0.2391023486852646,
        -0.017103800550103188,
        -0.12828470766544342,
        0.43046680092811584,
        -0.07332561910152435,
        0.16720397770404816,
        0.26270100474357605,
        -0.002651977352797985,
        0.028744015842676163,
        -0.0009453071397729218,
        -0.0031472831033170223,
        -0.01906992681324482,
        -0.00464271567761898,
        -0.008951274678111076,
        -0.12196261435747147,
        0.0029085050337016582,
        0.003854542039334774,
        -0.004459713120013475,
        0.00011615667608566582,
        -0.026652472093701363,
        -0.007137984968721867,
        -0.022691523656249046,
        0.007229335606098175,
        0.10756932944059372,
        0.11930707097053528,
        0.22008530795574188,
        -0.12823326885700226,
        -0.0026831929571926594,
        0.04953707009553909,
        0.06529056280851364,
        0.15109467506408691,
        -0.001480204053223133,
        -0.008551643230021,
        0.003250092500820756,
        -0.14506375789642334,
        0.0006096265278756618,
        -0.0023701146710664034,
        -0.0033740296494215727,
        0.00045809149742126465,
        0.015616352669894695,
        -0.02352428250014782,
        0.29628559947013855,
        -0.07182501256465912,
        -0.022436298429965973,
        -0.002619282342493534,
        0.014443996362388134,
        0.008013968355953693,
        -1.1726936101913452,
        -0.022844865918159485,
        -0.005374561529606581,
        0.004351068753749132,
        -0.02168341912329197,
        -0.003460224950686097,
        -0.020709512755274773,
        0.1509018987417221,
        -0.028034722432494164,
        -0.00796676054596901,
        -0.09429430216550827,
        -0.07117142528295517,
        0.08677938580513,
        -0.08018352091312408,
        -0.04232017695903778,
        0.10268574208021164,
        0.10471563786268234,
        0.06394755840301514,
        0.2440001368522644,
        0.018529251217842102,
        0.009269237518310547,
        -0.00743525568395853,
        -0.008433684706687927,
        -0.009523491375148296,
        0.00037879322189837694,
        -0.005212885793298483,
        -0.18826855719089508,
        0.008482162840664387,
        0.007582570426166058,
        -0.007577596697956324,
        -0.007259004283696413,
        0.00716940313577652,
        0.09204544872045517,
        0.07723616063594818,
        -0.13467426598072052,
        0.013410954736173153,
        -0.01869046688079834,
        0.3855127990245819,
        0.004883511923253536,
        -0.024437734857201576,
        -0.0043802643194794655,
        0.03997185081243515,
        0.47604188323020935,
        0.006936191115528345,
        0.008801547810435295,
        -0.007624354679137468,
        -0.18573498725891113,
        -0.018503427505493164,
        -0.010211171582341194,
        0.009813954122364521,
        -0.003389546414837241,
        0.021816417574882507,
        -0.02809285558760166,
        0.31176143884658813,
        -0.022098958492279053,
        0.044781964272260666,
        -0.06364282220602036,
        0.029637563973665237,
        0.02699662558734417,
        -0.9681442975997925,
        -0.048348914831876755,
        -0.011306497268378735,
        -0.008295195177197456,
        -0.05233301222324371,
        0.004458244424313307,
        -0.0693407729268074,
        -0.08300626277923584,
        0.10814350843429565,
        0.05617651343345642,
        0.029686346650123596,
        0.057929567992687225,
        0.4460059404373169,
        0.023905428126454353,
        0.11344688385725021,
        0.23418763279914856,
        -0.06399893760681152,
        -0.14823828637599945,
        0.2829264998435974,
        0.2243388295173645,
        -0.1168157085776329,
        0.7598294019699097,
        0.0063562761060893536,
        -0.05173603445291519,
        -0.00847034901380539,
        -0.01705353707075119,
        -0.0384703055024147,
        0.011092648841440678,
        -0.013152600266039371,
        0.010174239054322243,
        0.005508504342287779,
        -0.06335470080375671,
        -0.5065863132476807,
        0.05938514322042465,
        -0.06995195150375366,
        -0.06666113436222076,
        -0.014496893621981144,
        0.2063034325838089,
        -0.15953083336353302,
        0.13316777348518372,
        -0.006503643002361059,
        0.002991572953760624,
        0.05849463865160942,
        -0.008075051009654999,
        -0.009558008052408695,
        -0.0075009847059845924,
        -0.052899543195962906,
        0.011340974830091,
        0.018727637827396393,
        0.001895422232337296,
        -0.004102068021893501,
        0.24942781031131744,
        -0.0162590853869915,
        -0.012848971411585808,
        -0.23640169203281403,
        -0.10948268324136734,
        0.03830886259675026,
        -0.09799530357122421,
        0.010082588531076908,
        -0.2642119228839874,
        0.003544909181073308,
        0.002371674170717597,
        0.0057118614204227924,
        0.010231325402855873,
        0.004715999122709036,
        -0.032198794186115265,
        0.32479482889175415,
        0.1254672110080719,
        0.06624653190374374,
        0.025630999356508255,
        -0.03052949346601963,
        0.11155641078948975,
        0.04071781411767006,
        0.08043535053730011,
        0.08230427652597427,
        -0.05634373053908348,
        -0.007048745173960924,
        0.2546055316925049,
        0.040752992033958435,
        0.08471401780843735,
        0.12385290116071701,
        -0.4221428334712982,
        -0.0019625427667051554,
        0.0007948141428641975,
        0.0009878139244392514,
        -0.06507457047700882,
        -0.003731348318979144,
        -0.0019799950532615185,
        0.0065475935116410255,
        0.002032102318480611,
        -0.011426437646150589,
        -0.015810491517186165,
        0.021819444373250008,
        -0.032727811485528946,
        -0.018970001488924026,
        -0.0028712970670312643,
        -0.04546476900577545,
        -0.01825377158820629,
        0.001502537983469665,
        -0.003356439061462879,
        0.00024568825028836727,
        0.03706337511539459,
        -0.009417432360351086,
        0.0011203675530850887,
        -0.0034626726992428303,
        -0.0758860856294632,
        0.0006055914564058185,
        -0.00551399402320385,
        0.005894881673157215,
        0.0032789066899567842,
        0.009979458525776863,
        0.013918701559305191,
        0.18547499179840088,
        -0.021192247048020363,
        -0.03798120096325874,
        -0.009732638485729694,
        0.11725327372550964,
        -0.43985453248023987,
        0.010088291019201279,
        0.044577669352293015,
        0.011370223946869373,
        0.00649409182369709,
        0.03878048434853554,
        0.0029907685238868,
        0.06492163240909576,
        0.021029463037848473,
        0.10479104518890381,
        -0.13853725790977478,
        0.015478663146495819,
        -0.011919870972633362,
        0.08710474520921707,
        -0.00834102462977171,
        -0.005961515009403229,
        0.0024283910170197487,
        0.004473013803362846,
        0.009532377123832703,
        0.0759296640753746,
        -0.0029913545586168766,
        -0.001836429932154715,
        0.00903641153126955,
        -0.5127559304237366,
        -0.0015314185293391347,
        -0.012608679942786694,
        0.002417390700429678,
        -0.2405078411102295,
        -0.0033289443235844374,
        -0.0012210918357595801,
        0.012426519766449928,
        0.010849641636013985,
        0.05866258963942528,
        0.07811202108860016,
        0.055302511900663376,
        -0.06749594211578369,
        -0.03008258529007435,
        0.05391644313931465,
        0.1390269249677658,
        -0.019742455333471298,
        -0.011897950433194637,
        -0.01932387426495552,
        0.03271177038550377,
        0.1560654491186142,
        0.011162814684212208,
        -0.00803904328495264,
        -0.0072180177085101604,
        -0.28726738691329956,
        -0.0013435399159789085,
        -0.0017833862220868468,
        0.013662846758961678,
        -0.006436960306018591,
        0.05438214913010597,
        -0.026934267953038216,
        0.39394378662109375,
        -0.07142750173807144,
        -0.04024006053805351,
        -0.00034919672179967165,
        -0.11547690629959106,
        -0.4699026048183441,
        0.00984894298017025,
        -0.011138059198856354,
        -0.02589334361255169,
        0.0012673960300162435,
        -0.019261498004198074,
        -0.0031194572802633047,
        0.005976685788482428,
        0.13636188209056854,
        -0.10111451894044876,
        0.05218265950679779,
        0.018401851877570152,
        -0.008018581196665764,
        0.30233311653137207,
        -0.037736281752586365,
        -0.11598849296569824,
        0.21574144065380096,
        0.029357001185417175,
        0.08830925822257996,
        0.4291476905345917,
        0.004637959413230419,
        0.005460872780531645,
        0.027031192556023598,
        0.21919763088226318,
        -0.022590843960642815,
        -0.017782539129257202,
        0.00658892747014761,
        -0.2637496888637543,
        0.09531977772712708,
        -0.16104447841644287,
        0.001999403117224574,
        0.04930296540260315,
        -0.098460853099823,
        0.08166017383337021,
        0.07569508254528046,
        0.06382589787244797,
        0.035099439322948456,
        -0.02755170688033104,
        0.43636825680732727,
        -0.13572317361831665,
        -0.10428391396999359,
        0.01709253154695034,
        0.0051170228980481625,
        0.5228967666625977,
        0.0019412817200645804,
        -0.007436397951096296,
        0.035134803503751755,
        -0.2519589960575104,
        0.03007642738521099,
        -0.01764887385070324,
        0.01387510634958744,
        -0.013560165651142597,
        -0.23413240909576416,
        0.06445286422967911,
        0.2857898473739624,
        0.4217275381088257,
        0.27557849884033203,
        -0.11001721769571304,
        -0.06996938586235046,
        0.05972706526517868,
        -0.583137035369873,
        -0.03330583497881889,
        0.021705882623791695,
        -0.001793791656382382,
        -0.02989911288022995,
        0.010055435821413994,
        -0.05321970209479332,
        -0.015903593972325325,
        0.13428381085395813,
        0.10301506519317627,
        0.029070280492305756,
        0.041433196514844894,
        0.37484046816825867,
        -0.052625320851802826,
        0.05943518504500389,
        0.5257710218429565,
        0.07396549731492996,
        -0.06824776530265808,
        0.2515307664871216,
        -0.0012118964223191142,
        0.002693877322599292,
        -0.0015569819370284677,
        0.0014223265461623669,
        -0.007838780991733074,
        0.0012198432814329863,
        0.005807322915643454,
        -0.2587829530239105,
        -0.003538675606250763,
        0.005433632992208004,
        0.0005830583395436406,
        -0.0028271519113332033,
        0.003462633118033409,
        0.0037105951923877,
        0.013691484928131104,
        -0.011378835886716843,
        -0.006633775774389505,
        -0.00041244918247684836,
        0.4208455979824066,
        0.013824010267853737,
        -0.012533256784081459,
        0.015125697478652,
        -0.046498969197273254,
        0.34118932485580444,
        -0.013853495009243488,
        0.004439414944499731,
        0.008109688758850098,
        -0.2516241669654846,
        -0.006087299436330795,
        -0.0038417931646108627,
        0.0034715638030320406,
        -0.012013510800898075,
        -0.026842767372727394,
        0.055563658475875854,
        0.4260953664779663,
        -0.09176301211118698,
        -0.04800260439515114,
        -0.023039577528834343,
        -0.03561265766620636,
        0.0013509251875802875,
        -1.2528364658355713,
        0.023989863693714142,
        -0.00559736555442214,
        -0.006267684046179056,
        0.022272666916251183,
        0.00046338303945958614,
        0.031847331672906876,
        0.1256922334432602,
        0.062231846153736115,
        0.053137823939323425,
        0.02503689005970955,
        -0.03341815993189812,
        0.3601294755935669,
        -0.010642844252288342,
        0.05081823468208313,
        0.15619118511676788,
        -0.009186825715005398,
        -0.021275026723742485,
        0.41603416204452515,
        0.46511030197143555,
        0.8292788863182068,
        0.6217155456542969,
        -0.04119998589158058,
        -0.02742580510675907,
        -0.006687022279947996,
        0.0069136954843997955,
        -0.4185432493686676,
        -0.006930378265678883,
        -0.01609874702990055,
        -0.008901756256818771,
        -0.0013502954971045256,
        -0.0003524183703120798,
        0.0057790023274719715,
        -0.08074348419904709,
        0.018243154510855675,
        -0.06192721799015999,
        -0.021617010235786438,
        0.2717251479625702,
        -0.18618227541446686,
        0.08280724287033081,
        -0.013216296210885048,
        -0.019613392651081085,
        -0.037558723241090775,
        -0.006227337289601564,
        0.0011580296559259295,
        0.003598466282710433,
        -0.10961449891328812,
        -0.0016984124667942524,
        -0.009748945012688637,
        0.001987127587199211,
        -0.002525961259379983,
        0.17501632869243622,
        0.11745354533195496,
        0.11059758812189102,
        -0.4992876350879669,
        -0.13979695737361908,
        -0.010577505454421043,
        -0.02957259677350521,
        -0.007744498085230589,
        0.012613233178853989,
        0.016633225604891777,
        -0.00514265988022089,
        0.0021322753746062517,
        0.016084713861346245,
        0.0067891222424805164,
        0.007049897685647011,
        0.3194887638092041,
        0.2280655801296234,
        0.048133812844753265,
        0.044182028621435165,
        0.034834153950214386,
        0.012643983587622643,
        0.01917094551026821,
        0.01093293633311987,
        -0.04579760506749153,
        -0.03226449340581894,
        -0.009067977778613567,
        -0.00014187177293933928,
        -0.03321048989892006,
        -0.04795263335108757,
        -0.0028759059496223927,
        0.3619159758090973,
        -0.03412478789687157,
        0.00987357459962368,
        -0.0011437665671110153,
        -0.2800145149230957,
        -0.09864552319049835,
        0.14475661516189575,
        0.06563827395439148,
        -0.07685975730419159,
        -0.0449410006403923,
        0.17713400721549988,
        -0.008082572370767593,
        0.19904600083827972,
        0.035907451063394547,
        0.06790758669376373,
        0.5626111626625061,
        -0.05388365685939789,
        -0.06978751718997955,
        -0.04390975460410118,
        0.011117515154182911,
        0.43789857625961304,
        0.026227809488773346,
        0.018432345241308212,
        -0.002619913313537836,
        -0.2651332914829254,
        0.006297066807746887,
        0.019175337627530098,
        -0.0016298231203109026,
        -0.013371537439525127,
        -0.4743950068950653,
        0.059479109942913055,
        0.4698663353919983,
        0.1789385974407196,
        0.4293251633644104,
        -0.0743333101272583,
        0.07562622427940369,
        0.09616634994745255,
        -0.03846906125545502,
        -0.07035904377698898,
        -0.008325675502419472,
        -0.01812952198088169,
        -0.05631781741976738,
        -0.007588421460241079,
        -0.05530539155006409,
        0.3255273401737213,
        0.1508832722902298,
        0.012056319043040276,
        -0.0010760995792225003,
        0.010095174424350262,
        0.34820616245269775,
        -0.02566775120794773,
        0.10234411060810089,
        0.3772726058959961,
        0.10902892798185349,
        -0.08855573832988739,
        0.5913859009742737,
        0.010049891658127308,
        0.006828786805272102,
        0.0011960362317040563,
        0.21121379733085632,
        -0.01897633820772171,
        0.006552669685333967,
        -0.02719505876302719,
        -0.04575566202402115,
        -0.003129761666059494,
        -0.0015961130848154426,
        -0.004675441421568394,
        -0.001839644624851644,
        0.013465065509080887,
        0.015089849010109901,
        0.00907333567738533,
        -0.030055023729801178,
        0.0032743799965828657,
        -0.022962288931012154,
        0.20605097711086273,
        -0.025698555633425713,
        -0.01626000925898552,
        0.004206097684800625,
        -0.16971737146377563,
        0.00956669170409441,
        -0.0019274817313998938,
        0.0005854449700564146,
        -0.06419164687395096,
        -0.05248066410422325,
        -0.00387615361250937,
        4.541841917671263e-06,
        -0.0008090079063549638,
        -0.0009977954905480146,
        0.02834407053887844,
        -0.021536678075790405,
        0.06944436579942703,
        -0.019348079338669777,
        0.0051239668391644955,
        -0.00668417289853096,
        0.11136366426944733,
        0.08926260471343994,
        -0.2916865050792694,
        -0.008495264686644077,
        -0.0014518443495035172,
        -0.003123451489955187,
        -0.0062845731154084206,
        0.004111142363399267,
        -0.010488343425095081,
        0.12063345313072205,
        -0.07918006181716919,
        -0.10167303681373596,
        0.012811684049665928,
        -0.014556964859366417,
        0.15029172599315643,
        0.02190736122429371,
        0.029724596068263054,
        0.18862855434417725,
        -0.03129329904913902,
        0.012258529663085938,
        -0.03235336393117905,
        -0.007992510683834553,
        -0.01775326579809189,
        -0.018284384161233902,
        -0.021816803142428398,
        0.012819601222872734,
        -0.014560791663825512,
        -0.011727110482752323,
        -0.14532794058322906,
        0.005660613998770714,
        -0.004283138085156679,
        0.0035300017334520817,
        0.01079857163131237,
        -0.1627790927886963,
        -0.218013197183609,
        0.06465759128332138,
        -0.18922117352485657,
        0.10791370272636414,
        -0.07997908443212509,
        0.18337424099445343,
        -0.08339234441518784,
        -0.040934812277555466,
        0.024607665836811066,
        0.05090496316552162,
        0.3302004933357239,
        0.024514377117156982,
        0.014668572694063187,
        0.005653036292642355,
        -0.021129600703716278,
        0.008720600977540016,
        -0.002194860950112343,
        -0.030568692833185196,
        -0.001344161108136177,
        0.19596228003501892,
        0.23116284608840942,
        0.38692331314086914,
        -0.1906662881374359,
        0.18764936923980713,
        -0.06739971041679382,
        -0.04637875780463219,
        0.021157363429665565,
        -0.9099124670028687,
        0.06555111706256866,
        0.01870724931359291,
        0.004470963031053543,
        0.05032583698630333,
        -0.010959012433886528,
        0.0948411375284195,
        0.005488288588821888,
        -0.13333997130393982,
        0.12738600373268127,
        -0.11821720749139786,
        0.057516612112522125,
        0.22862842679023743,
        -0.1046024039387703,
        0.050821974873542786,
        0.1029013842344284,
        0.15017838776111603,
        -0.04134248197078705,
        0.24784556031227112,
        0.2821107804775238,
        0.3037761151790619,
        0.008279543370008469,
        -0.06721892952919006,
        -0.018665151670575142,
        -0.020730245858430862,
        0.00018715040641836822,
        -0.1359216719865799,
        -0.0019252980127930641,
        -0.003449879353865981,
        -0.0015126924263313413,
        -0.010187288746237755,
        -0.017852898687124252,
        -0.011228944174945354,
        -0.04634443297982216,
        0.0734521672129631,
        -0.04551544412970543,
        0.011667609214782715,
        0.2157384306192398,
        0.057106565684080124,
        0.05516336113214493,
        -0.06294333189725876,
        -0.0018056033877655864,
        0.15513986349105835,
        0.0017930162139236927,
        0.0017539005493745208,
        -0.002170987194404006,
        -0.15733809769153595,
        0.0018417802639305592,
        -0.008523248136043549,
        -0.009790206328034401,
        -0.005979853682219982,
        -0.132267028093338,
        0.03242352977395058,
        0.3307607173919678,
        -0.32762667536735535,
        0.04504023492336273,
        0.028423290699720383,
        0.009031791239976883,
        0.018466297537088394,
        -1.0368732213974,
        -0.02019093744456768,
        0.0007169023156166077,
        -0.0025006451178342104,
        -0.014175391755998135,
        -0.0042684790678322315,
        -0.03350703418254852,
        0.051776766777038574,
        0.07039551436901093,
        0.032733380794525146,
        0.04089479520916939,
        0.015152239240705967,
        0.3216439187526703,
        0.08096984028816223,
        0.0853203684091568,
        0.223128542304039,
        -0.07442417740821838,
        -0.1035698726773262,
        0.14480522274971008,
        -0.009297650307416916,
        0.01253521628677845,
        0.0029991543851792812,
        -0.5224527716636658,
        -0.0026886858977377415,
        0.0033401953987777233,
        0.0008635367848910391,
        -0.19248387217521667,
        0.012008205987513065,
        -0.0021585493814200163,
        -0.0013152966275811195,
        -0.01162570808082819,
        0.07340319454669952,
        0.12503905594348907,
        0.07157374173402786,
        -0.03865007311105728,
        -0.01864425465464592,
        0.0005299472250044346,
        0.21134372055530548,
        0.006645772606134415,
        -0.04439178854227066,
        -0.014495545998215675,
        -0.009382632561028004,
        0.2743586599826813,
        0.0007785346824675798,
        -0.0017403782112523913,
        0.0054696411825716496,
        -0.29953232407569885,
        0.0024997673463076353,
        0.015442888252437115,
        0.013504229485988617,
        -0.011451552622020245,
        0.02740989811718464,
        -0.019147057086229324,
        0.27937063574790955,
        -0.17852550745010376,
        -0.07771249115467072,
        -0.05650768429040909,
        0.012266871519386768,
        -0.5710087418556213,
        -0.006694910116493702,
        0.008641760796308517,
        0.007960030809044838,
        0.010131360031664371,
        0.009571480564773083,
        -0.0014538401737809181,
        0.036183230578899384,
        0.14051543176174164,
        0.011422262527048588,
        0.016666080802679062,
        0.017087170854210854,
        0.01261133048683405,
        0.33533892035484314,
        -0.03830188885331154,
        -0.00571895856410265,
        0.21531106531620026,
        0.01797076128423214,
        -0.01382449921220541,
        0.3619688153266907,
        1.5403772592544556,
        -0.010230268351733685,
        -0.011658281087875366,
        -0.019582785665988922,
        -0.01028035581111908,
        0.02237074449658394,
        -0.0024532817769795656,
        -0.0925692617893219,
        0.005335268098860979,
        -0.004835628438740969,
        0.006705741863697767,
        0.0005172376986593008,
        -0.021213343366980553,
        -0.014761506579816341,
        -0.021980037912726402,
        0.019512740895152092,
        0.0842236578464508,
        0.07716424763202667,
        -0.06165960803627968,
        -0.06773121654987335,
        0.018145844340324402,
        0.042940132319927216,
        0.06762325018644333,
        -0.0241454616189003,
        -0.007436414249241352,
        0.005213291384279728,
        -0.024712102487683296,
        0.03705057501792908,
        0.00304641155526042,
        -0.00539000378921628,
        0.006225221324712038,
        -0.005323849618434906,
        -0.09806383401155472,
        0.05544976517558098,
        0.048030320554971695,
        -0.07214052975177765,
        0.06003913655877113,
        0.04205314442515373,
        0.029984932392835617,
        0.0007979351794347167,
        0.020666606724262238,
        0.0193084217607975,
        -0.0032030087895691395,
        -0.0047577060759067535,
        0.020054150372743607,
        0.000878271006513387,
        0.00856499932706356,
        0.020478995516896248,
        -0.11656263470649719,
        -0.028948873281478882,
        -0.11013206839561462,
        -0.03941312059760094,
        0.13626311719417572,
        0.16038745641708374,
        0.025583308190107346,
        -0.05803614482283592,
        -0.15439413487911224,
        -0.022395137697458267,
        -0.02701941877603531,
        -0.07958530634641647,
        -0.11480050534009933,
        0.6730690598487854,
        -0.009818223305046558,
        -0.041632696986198425,
        -0.019394153729081154,
        -0.019564146175980568,
        -0.023731861263513565,
        0.0053301407024264336,
        6.96567731210962e-05,
        0.0016266029560938478,
        -0.003223062725737691,
        -0.10769274085760117,
        -0.2058752328157425,
        -0.008474328555166721,
        -0.029901092872023582,
        -0.061153970658779144,
        0.05317438766360283,
        0.13992737233638763,
        -0.11613033711910248,
        0.162196546792984,
        -0.007209598086774349,
        0.05883220583200455,
        -0.00958448275923729,
        0.01022714376449585,
        -0.007288080174475908,
        -0.007377665024250746,
        -0.05507306754589081,
        -0.000647054985165596,
        0.005707046017050743,
        0.0019392758840695024,
        0.002997602103278041,
        0.16185696423053741,
        -0.10703442245721817,
        0.09641317278146744,
        -0.26724773645401,
        -0.15373478829860687,
        0.036781445145606995,
        0.05614757910370827,
        0.013083231635391712,
        -0.18325595557689667,
        -0.002660499420017004,
        -0.0024767222348600626,
        -0.0005929723265580833,
        0.00018015327805187553,
        0.004824014846235514,
        -0.02161565236747265,
        0.24160607159137726,
        0.19378679990768433,
        -0.06243666633963585,
        0.019958918914198875,
        -0.0441582016646862,
        0.04540376365184784,
        -0.018999353051185608,
        0.10339934378862381,
        0.17153337597846985,
        0.038189660757780075,
        -0.039143115282058716,
        0.08815647661685944,
        0.03725147247314453,
        0.14753207564353943,
        0.019495442509651184,
        -0.3678646385669708,
        -0.01605655997991562,
        -0.003923628944903612,
        0.0008105250890366733,
        -0.09880224615335464,
        0.013125238940119743,
        0.014518460258841515,
        -2.9357775929383934e-05,
        -0.010640393011271954,
        0.02975703775882721,
        0.0277548935264349,
        0.05792709067463875,
        -0.04539560154080391,
        -0.020160015672445297,
        0.009808742441236973,
        0.10788475722074509,
        -0.05913418531417847,
        0.02306210808455944,
        -0.018171904608607292,
        0.011969861574470997,
        0.0485108457505703,
        0.005336840637028217,
        0.0012554198037832975,
        0.006367628462612629,
        -0.16150473058223724,
        0.015411723405122757,
        -0.00975771900266409,
        0.016866540536284447,
        0.0008739824406802654,
        0.0621977224946022,
        0.026307769119739532,
        0.31965240836143494,
        -0.008473830297589302,
        -0.05339127406477928,
        0.0027473755180835724,
        0.13615944981575012,
        -0.6016806960105896,
        0.0056714853271842,
        -0.02652946673333645,
        0.013450399972498417,
        -0.0051524885930120945,
        -0.04206334054470062,
        0.00736650126054883,
        -0.04208473488688469,
        -0.11000313609838486,
        0.10258305072784424,
        -0.14640477299690247,
        0.015621094964444637,
        -0.002381863771006465,
        0.04842732474207878,
        -0.011125510558485985,
        -0.0018384995637461543,
        0.22312887012958527,
        0.002217578701674938,
        -0.007751735858619213,
        0.2218504399061203,
        -0.0009814209770411253,
        0.0002048092137556523,
        0.0011815950274467468,
        0.05805707350373268,
        0.0014611692167818546,
        -0.02097286283969879,
        0.01322100404649973,
        -0.17336714267730713,
        0.049414973706007004,
        -0.07207342982292175,
        -0.03854016214609146,
        0.022312847897410393,
        -0.039134759455919266,
        0.061809662729501724,
        0.15554668009281158,
        0.01270546205341816,
        -0.13448680937290192,
        0.03421032428741455,
        0.2766832113265991,
        0.06582405418157578,
        -0.02416250668466091,
        -0.05174250155687332,
        0.00940188392996788,
        0.28887850046157837,
        0.002634012373164296,
        -0.007887179031968117,
        -0.010405536741018295,
        -0.12921611964702606,
        0.007545339874923229,
        -0.016380667686462402,
        -0.004796230234205723,
        -0.0017741996562108397,
        -0.15526126325130463,
        0.08999614417552948,
        0.36868417263031006,
        0.5423240065574646,
        0.14675496518611908,
        -0.284016877412796,
        -0.08805166184902191,
        4.582562905852683e-05,
        -0.7309057712554932,
        0.05942944809794426,
        -0.004602686036378145,
        0.005057096015661955,
        0.032890718430280685,
        -0.0023240179289132357,
        0.04644475132226944,
        -0.06025346741080284,
        -0.26694220304489136,
        0.09817449748516083,
        -0.03198389336466789,
        0.006238898262381554,
        0.18210896849632263,
        -0.0045206137001514435,
        -0.055230021476745605,
        0.16801974177360535,
        0.10214110463857651,
        -0.14364148676395416,
        0.3245152235031128,
        -0.01017600204795599,
        0.0051741935312747955,
        -0.00042442959966138005,
        -0.49394845962524414,
        0.0009646501275710762,
        0.005549660883843899,
        0.004913313779979944,
        -0.1279730200767517,
        0.001186031848192215,
        0.006693627219647169,
        -0.005636863876134157,
        -0.011176260188221931,
        0.057912152260541916,
        0.13631679117679596,
        0.08377259224653244,
        0.007997330278158188,
        -0.007826094515621662,
        0.05741070210933685,
        0.28482404351234436,
        0.04703475534915924,
        -0.019021928310394287,
        -0.002003183588385582,
        0.028395842760801315,
        0.40907129645347595,
        0.0013343157479539514,
        -0.003671142738312483,
        -0.007544076535850763,
        -0.06944320350885391,
        0.006109615787863731,
        -0.00029594541410915554,
        0.011054357513785362,
        0.002953446004539728,
        0.01636534370481968,
        -0.056557346135377884,
        0.264795184135437,
        -0.10584188997745514,
        -0.06708662211894989,
        -0.037147730588912964,
        0.011274059303104877,
        -0.5549272894859314,
        -0.007817174308001995,
        -0.10195259004831314,
        0.0021128349471837282,
        -0.011671338230371475,
        -0.09556226432323456,
        -0.013737233355641365,
        -0.11428765207529068,
        -0.13093268871307373,
        0.12326419353485107,
        0.025869600474834442,
        -0.0014772678259760141,
        -0.011097230948507786,
        0.3432730436325073,
        -0.023273052647709846,
        -0.003477279329672456,
        0.47698673605918884,
        0.002385976491495967,
        -0.02163662202656269,
        0.28479427099227905,
        0.6132410168647766,
        1.157046914100647,
        -0.021327244117856026,
        -0.03787807375192642,
        0.005811840761452913,
        0.016173532232642174,
        0.011179291643202305,
        -0.034673769026994705,
        -0.005688952747732401,
        -0.004217522218823433,
        0.002760586328804493,
        0.0038962599355727434,
        -0.19048644602298737,
        -0.18312637507915497,
        -0.057950813323259354,
        0.08850676566362381,
        -0.036779552698135376,
        0.020426355302333832,
        0.03145890682935715,
        0.04587332531809807,
        0.08943495899438858,
        -0.06307245045900345,
        -0.024839499965310097,
        0.0517621710896492,
        -0.014138564467430115,
        0.0024415021762251854,
        0.0010525913676247,
        -0.06312575936317444,
        -0.0014207875356078148,
        0.0060967691242694855,
        -0.0002970256609842181,
        0.003394704544916749,
        -0.12889516353607178,
        0.03554729372262955,
        0.10630754381418228,
        -0.23261360824108124,
        0.29964229464530945,
        0.060010138899087906,
        0.050376564264297485,
        0.007235304452478886,
        0.024675516411662102,
        0.03463981673121452,
        -0.0015998458256945014,
        0.008892548270523548,
        0.03794655576348305,
        -0.008057490922510624,
        0.004498218651860952,
        -0.06688814610242844,
        0.07533694803714752,
        -0.020275497809052467,
        0.03951170668005943,
        0.013857852667570114,
        0.08681889623403549,
        0.05333850905299187,
        -0.005508028902113438,
        0.23972105979919434,
        -0.0848333090543747,
        -0.015489058569073677,
        0.02486325241625309,
        0.0018529099179431796,
        0.0024002583231776953,
        -0.00207389029674232,
        -0.34572651982307434,
        -0.010878151282668114,
        -0.002571327844634652,
        0.009204555302858353,
        -0.2789025902748108,
        -0.002452968619763851,
        0.01671450585126877,
        0.00689234072342515,
        -0.03055689111351967,
        0.07797276228666306,
        0.09301353245973587,
        0.07685687392950058,
        -0.04939841479063034,
        -0.11065461486577988,
        -0.1262640804052353,
        0.2104138880968094,
        -0.01607915759086609,
        -0.044574759900569916,
        -0.0056706639006733894,
        -0.023169685155153275,
        0.2780438959598541,
        0.010339091531932354,
        -0.0014835023321211338,
        -0.004547701217234135,
        -0.4179036617279053,
        -0.004147802945226431,
        -0.0030320286750793457,
        0.004209606442600489,
        0.00018745462875813246,
        0.10870770364999771,
        0.08577705919742584,
        0.3925406336784363,
        0.06319399178028107,
        0.0054349135607481,
        -0.0742989331483841,
        0.03379765525460243,
        -0.5887488126754761,
        0.05457865446805954,
        0.05374419316649437,
        0.006903366651386023,
        -0.0006666115950793028,
        0.06031254678964615,
        -0.004365469329059124,
        0.10196919739246368,
        -0.22728611528873444,
        -0.004168121609836817,
        0.021746618673205376,
        -0.08005376905202866,
        -0.08069191873073578,
        0.4323127567768097,
        0.028420697897672653,
        -0.12480662763118744,
        0.26799631118774414,
        0.013101194053888321,
        0.1702871024608612,
        0.4231340289115906,
        0.8038085103034973,
        -0.01643061451613903,
        1.0625154972076416,
        -0.032201044261455536,
        -0.013669004663825035,
        -0.017498545348644257,
        -0.0030789494048804045,
        0.030695192515850067,
        0.0060479361563920975,
        0.006053230259567499,
        0.0024636508896946907,
        -0.00016535678878426552,
        -0.08101005107164383,
        -0.1393815577030182,
        -0.15264782309532166,
        0.0754791721701622,
        -0.09980151802301407,
        -0.018585193902254105,
        -0.0841616690158844,
        -0.1456601768732071,
        -0.007036106660962105,
        -0.14881305396556854,
        -0.07705960422754288,
        0.045587826520204544,
        -0.008266096003353596,
        -0.01689102314412594,
        -0.020659616217017174,
        -0.012391178868710995,
        -0.0018627212848514318,
        -0.0008498089155182242,
        -0.0011730310507118702,
        0.0035923731047660112,
        0.03719998523592949,
        0.1033172756433487,
        0.1017155647277832,
        -0.4196697771549225,
        0.06928640604019165,
        0.06208692118525505,
        -0.10677005350589752,
        0.01428205706179142,
        0.11599712818861008,
        0.1117347925901413,
        0.005355852656066418,
        -0.0036071042995899916,
        0.1216953918337822,
        -0.0011297890450805426,
        0.12427722662687302,
        0.11388374119997025,
        0.23951803147792816,
        0.1273351013660431,
        0.0937008261680603,
        -0.007009487599134445,
        0.19007417559623718,
        -0.09266841411590576,
        0.06423985213041306,
        0.18497177958488464,
        0.0622393824160099,
        -0.012093198485672474,
        -0.03819338232278824,
        -0.00764180114492774,
        -0.036618225276470184,
        -0.03479495644569397,
        0.18200264871120453,
        0.0363348126411438,
        -0.002875244477763772,
        0.035712409764528275,
        -0.14936484396457672,
        0.006844985298812389,
        -0.01647324301302433,
        0.0021423022262752056,
        0.0023057921789586544,
        -0.10519251972436905,
        -0.13176608085632324,
        0.030942391604185104,
        -0.42050841450691223,
        -0.18642009794712067,
        -0.004987348336726427,
        0.18947699666023254,
        -0.02567674033343792,
        -0.15085414052009583,
        0.013097111135721207,
        0.22838708758354187,
        0.2083260864019394,
        -0.0069189900532364845,
        -0.04314904659986496,
        0.006926245521754026,
        -0.1565391719341278,
        -0.009743863716721535,
        -0.0038332906551659107,
        0.00951116718351841,
        0.015431796200573444,
        -0.013063657097518444,
        -0.12230575084686279,
        0.18233957886695862,
        0.2960781157016754,
        0.15028105676174164,
        -0.11405283957719803,
        -0.2521979808807373,
        -0.021682843565940857,
        0.12765301764011383,
        -0.07737134397029877,
        -0.037404827773571014,
        0.007425510790199041,
        -0.053043972700834274,
        -0.013779410161077976,
        -0.0685996413230896,
        0.035085491836071014,
        0.14452551305294037,
        -0.06389182060956955,
        -0.016032341867685318,
        -0.20192469656467438,
        0.1859399825334549,
        0.02834068424999714,
        0.023686503991484642,
        0.14395131170749664,
        0.0438678041100502,
        -0.018238820135593414,
        0.24603697657585144,
        0.029143719002604485,
        -0.0020007549319416285,
        0.08549905568361282,
        0.001623527379706502,
        -0.022723903879523277,
        0.0006272189202718437,
        0.0019802453462034464,
        -0.11051417887210846,
        0.0011068966705352068,
        -0.007357498165220022,
        0.00032055636984296143,
        -0.0009337222436442971,
        0.005452962592244148,
        -0.014469798654317856,
        0.0024243819061666727,
        -0.00010485806706128642,
        -0.03936925157904625,
        0.09268707782030106,
        0.2303573191165924,
        -0.07544811815023422,
        -0.008536385372281075,
        0.011701074428856373,
        0.08782962709665298,
        0.26830872893333435,
        0.011070291511714458,
        -0.003104618052020669,
        0.005613674409687519,
        -0.10508396476507187,
        -0.004543089773505926,
        0.0027089149225503206,
        -0.00014100551197770983,
        -0.007626102771610022,
        0.04199402406811714,
        -0.0016808081418275833,
        0.18873226642608643,
        -0.16731972992420197,
        -0.06947223842144012,
        -0.04862705618143082,
        0.022009102627635002,
        0.007229926995933056,
        -1.2568410634994507,
        0.06439726054668427,
        -0.010675624012947083,
        -0.0037211624439805746,
        0.07166755944490433,
        -0.002522612689062953,
        0.0934452936053276,
        0.23864415287971497,
        0.037111714482307434,
        -0.017052119597792625,
        0.030673786997795105,
        -0.02650025486946106,
        0.030620984733104706,
        0.016324592754244804,
        -0.0172121524810791,
        0.2559255063533783,
        -0.013802212662994862,
        -0.04178142920136452,
        0.2460865080356598,
        0.005260217469185591,
        0.014654380269348621,
        0.02306564338505268,
        -0.04265211895108223,
        -0.02689492143690586,
        0.009136960841715336,
        -0.008407256565988064,
        -0.09967250376939774,
        -0.003440367290750146,
        0.05739323049783707,
        -0.12591513991355896,
        -0.002109378110617399,
        -0.003967521246522665,
        -0.04132723808288574,
        0.023092884570360184,
        -0.20890282094478607,
        -0.03947364166378975,
        0.07628805935382843,
        0.10630515962839127,
        -0.07577802240848541,
        -0.09010417759418488,
        -0.054118845611810684,
        0.19171668589115143,
        0.16813187301158905,
        -0.014938575215637684,
        -0.028965776786208153,
        -0.02195940539240837,
        -0.26948225498199463,
        -0.005859683733433485,
        0.0046194177120924,
        0.02329718880355358,
        -0.0013111945008859038,
        -0.08617241680622101,
        0.22451262176036835,
        0.34228864312171936,
        0.6244483590126038,
        -0.540394127368927,
        -0.16306240856647491,
        -0.04651668295264244,
        0.06727435439825058,
        0.24858735501766205,
        -0.0067980061285197735,
        -0.010366876609623432,
        -0.0013466404052451253,
        -0.017236605286598206,
        0.013110963627696037,
        -0.04336697980761528,
        0.1009029895067215,
        -0.1560477316379547,
        -0.21948854625225067,
        -0.08037680387496948,
        -0.21099598705768585,
        0.3839903473854065,
        -0.07666011899709702,
        0.1011383980512619,
        0.32964828610420227,
        0.030924363061785698,
        -0.10644164681434631,
        0.27964404225349426,
        0.008289257995784283,
        0.029997680336236954,
        0.024482237175107002,
        0.013467637822031975,
        -0.09121883660554886,
        0.035309646278619766,
        -0.022916285321116447,
        -0.2928442358970642,
        -0.18644464015960693,
        0.0035522938705980778,
        0.0028246750589460135,
        0.18421098589897156,
        0.0345926359295845,
        0.19333799183368683,
        0.10894033312797546,
        -0.10498390346765518,
        -0.10773446410894394,
        0.01802058517932892,
        0.155247762799263,
        0.05847737193107605,
        -0.006370833609253168,
        -0.02801160328090191,
        0.18881855905056,
        0.25012755393981934,
        -0.05731896683573723,
        0.009623604826629162,
        0.0049543604254722595,
        -0.17431844770908356,
        -0.05060950294137001,
        0.0039668302051723,
        0.01433617528527975,
        0.031946368515491486,
        -0.05194447934627533,
        0.1927216649055481,
        0.26816731691360474,
        0.4650810658931732,
        -0.5023974776268005,
        -0.05908104032278061,
        -0.14372673630714417,
        -0.02251281403005123,
        0.25012969970703125,
        0.01651439443230629,
        -0.0024359675589948893,
        -0.024844927713274956,
        0.02029079757630825,
        -0.04860294610261917,
        -0.034463971853256226,
        -0.25661501288414,
        -0.2734510898590088,
        0.05701402202248573,
        -0.04131651297211647,
        -0.03062445856630802,
        0.1354248821735382,
        -0.22770974040031433,
        -0.24123148620128632,
        0.14713186025619507,
        0.11812227219343185,
        0.1168719008564949,
        0.28553497791290283,
        -0.0010752686066552997,
        0.37545379996299744,
        -0.019501369446516037,
        -0.3639458417892456,
        0.02971215732395649,
        0.005750705488026142,
        0.0008685323991812766,
        -0.011051444336771965,
        0.014946645125746727,
        0.015292911790311337,
        -0.027728507295250893,
        -0.018013285472989082,
        0.00436085881665349,
        0.0724106952548027,
        0.128930926322937,
        -0.0478072464466095,
        -0.053626127541065216,
        0.005241860635578632,
        -0.03669632226228714,
        0.035379558801651,
        -0.010200133547186852,
        0.008080719970166683,
        0.018868323415517807,
        0.014885203912854195,
        0.0018819759134203196,
        0.0016090914141386747,
        -0.0018332160543650389,
        -0.02593264915049076,
        0.00039948621997609735,
        -0.006961438339203596,
        0.005274721421301365,
        -0.004361601080745459,
        -0.045529358088970184,
        0.07707569003105164,
        0.1840183138847351,
        0.37414637207984924,
        -0.07624591886997223,
        -0.25655367970466614,
        -0.0785556212067604,
        -0.21174584329128265,
        0.010907984338700771,
        0.10599664598703384,
        0.005201841238886118,
        0.00291562476195395,
        0.10952618718147278,
        -2.6254987460561097e-05,
        0.1372748762369156,
        -0.19845613837242126,
        -0.1602679044008255,
        0.041738361120224,
        -0.14029811322689056,
        -0.13450966775417328,
        0.01651848293840885,
        -0.02510223723948002,
        -0.11119069904088974,
        -0.11859258264303207,
        0.0623430497944355,
        0.12144162505865097,
        0.14929339289665222,
        0.0017242400208488107,
        -0.00608708243817091,
        0.0034009069204330444,
        0.23587152361869812,
        -0.006228170357644558,
        -0.008285069838166237,
        -0.017573604360222816,
        0.060822926461696625,
        -0.005791651085019112,
        0.0015297604259103537,
        -0.00019549642456695437,
        -0.0012942012399435043,
        -0.040050208568573,
        -0.13208559155464172,
        -0.03796586021780968,
        0.051612626761198044,
        0.0459156259894371,
        -0.14139220118522644,
        0.039322707802057266,
        -0.026958758011460304,
        0.024538403376936913,
        0.028651734814047813,
        -0.1891556829214096,
        0.10986106097698212,
        -0.0002489062608219683,
        -0.001024679047986865,
        -0.2622641623020172,
        -0.014040491543710232,
        0.004708375781774521,
        0.0017894251504912972,
        0.0006790434708818793,
        0.0031238135416060686,
        -0.046465951949357986,
        -0.2780202627182007,
        0.02253517135977745,
        0.06294914335012436,
        0.11164475977420807,
        0.039766017347574234,
        -0.11857368052005768,
        0.22932857275009155,
        0.034544654190540314,
        -0.022414855659008026,
        0.0035676206462085247,
        0.00314796669408679,
        -0.01618211902678013,
        -2.0815299649257213e-05,
        -0.03381867706775665,
        -0.13527435064315796,
        -0.003976579289883375,
        0.12471729516983032,
        -0.019213030114769936,
        0.1083221510052681,
        -0.0230859462171793,
        0.01843266561627388,
        -0.15254810452461243,
        -0.12230764329433441,
        -0.006170782260596752,
        -0.053531356155872345,
        -0.1096738949418068,
        0.024256542325019836,
        0.025171522051095963,
        0.00909170787781477,
        0.36246660351753235,
        -0.027423785999417305,
        -0.003052067244425416,
        0.02044440060853958,
        -0.24175874888896942,
        -0.053701069205999374,
        0.08765364438295364,
        -0.015823734924197197,
        -0.025055063888430595,
        -0.07735507190227509,
        -0.02020222321152687,
        -0.004654771648347378,
        -0.011056145653128624,
        0.020268920809030533,
        0.017389200627803802,
        0.4002748131752014,
        0.08843553066253662,
        -0.09324975311756134,
        0.02113487385213375,
        0.0357244610786438,
        0.31496161222457886,
        -0.03204317390918732,
        -0.007124678697437048,
        0.011612067930400372,
        -0.2567553222179413,
        -0.008641757071018219,
        -0.0004025885136798024,
        0.013537050224840641,
        0.011689242906868458,
        -0.4681463837623596,
        -0.27883073687553406,
        0.44586730003356934,
        0.27225738763809204,
        0.34575626254081726,
        -0.07375530153512955,
        0.030993571504950523,
        0.03246598318219185,
        0.04220835119485855,
        -0.01854105480015278,
        -0.015467329882085323,
        -0.00705579062923789,
        -0.011314010247588158,
        -0.00772962486371398,
        -0.02528282441198826,
        0.2438584715127945,
        0.19177944958209991,
        0.009872497990727425,
        0.04839158430695534,
        0.05343002453446388,
        0.3578282594680786,
        -0.008296428248286247,
        0.07023672014474869,
        0.4395172595977783,
        0.008687950670719147,
        -0.07394865155220032,
        0.3041715621948242,
        -0.007287855725735426,
        -0.018963007256388664,
        -0.025365348905324936,
        -0.002190733328461647,
        0.009689679369330406,
        -0.00819909293204546,
        -0.021117769181728363,
        -0.16790923476219177,
        0.003928540740162134,
        0.018447287380695343,
        0.0005904572317376733,
        0.004484992939978838,
        -0.013788050971925259,
        -0.07547207176685333,
        0.006008239462971687,
        -0.2443847507238388,
        -0.05020839348435402,
        0.03987507149577141,
        0.08227778971195221,
        0.13641740381717682,
        -0.028146587312221527,
        -0.019653569906949997,
        0.009633910842239857,
        0.2306142896413803,
        0.008038228377699852,
        0.0016481708735227585,
        -0.0007555076153948903,
        -0.08865991979837418,
        -0.0073731630109250546,
        0.0025119464844465256,
        -0.0068892729468643665,
        -0.004249510820955038,
        0.0005452317418530583,
        -0.08046131581068039,
        0.32045650482177734,
        0.027131063863635063,
        0.3004484176635742,
        0.034642353653907776,
        0.07304167747497559,
        0.005566876847296953,
        -0.9692702293395996,
        0.026266396045684814,
        -0.000269047828624025,
        -0.003237472614273429,
        0.034633345901966095,
        0.004698534030467272,
        0.04876990616321564,
        -0.08250122517347336,
        -0.1316448301076889,
        0.005372597835958004,
        0.00926470011472702,
        -0.05332881584763527,
        0.3025011122226715,
        -0.06726489961147308,
        0.012454500421881676,
        0.21490801870822906,
        0.02036505751311779,
        0.008392538875341415,
        0.07096243649721146,
        -0.007651491556316614,
        -0.0005512873758561909,
        0.008584483526647091,
        -0.37318581342697144,
        -0.02763446792960167,
        -0.012927498668432236,
        -0.004922058433294296,
        -0.16778217256069183,
        0.0007547627319581807,
        -0.033808741718530655,
        -0.015047295950353146,
        0.04884250462055206,
        0.06478365510702133,
        0.05545343831181526,
        0.03863084316253662,
        -0.03997175395488739,
        0.022554317489266396,
        0.020689571276307106,
        0.39925894141197205,
        -0.0342399999499321,
        -0.03928060457110405,
        0.004468891769647598,
        0.0376347079873085,
        0.5286868810653687,
        -0.01294728647917509,
        -0.012693925760686398,
        -0.011214187368750572,
        -0.1926814317703247,
        -0.016840610653162003,
        0.017013031989336014,
        0.007183365523815155,
        -0.016798952594399452,
        0.026648135855793953,
        -0.03686518594622612,
        0.37951260805130005,
        -0.1755482703447342,
        0.01309102401137352,
        0.025158299133181572,
        0.1704467236995697,
        -0.641476035118103,
        0.03102390468120575,
        0.005617441609501839,
        -0.10248658806085587,
        -0.01639934629201889,
        -0.009432151913642883,
        -0.011841077357530594,
        0.07403717935085297,
        -0.05316183343529701,
        0.09003595262765884,
        -0.11020179092884064,
        -0.02141653187572956,
        -0.024107998237013817,
        0.5573357343673706,
        -0.06991374492645264,
        -0.020199282094836235,
        0.28545311093330383,
        0.06367942690849304,
        0.011891503818333149,
        0.4873327612876892,
        -0.19384528696537018,
        -0.3199118375778198,
        -0.35208451747894287,
        0.15006403625011444,
        -0.040337447077035904,
        0.01969418115913868,
        0.008848746307194233,
        -0.14644786715507507,
        -0.058256570249795914,
        0.06148970499634743,
        -0.06261992454528809,
        0.03770402446389198,
        0.16413514316082,
        0.1244286373257637,
        0.012342891655862331,
        -0.07997611910104752,
        -0.032726433128118515,
        0.08602997660636902,
        0.25199079513549805,
        0.0243255365639925,
        0.020603349432349205,
        -0.051184818148612976,
        0.16505196690559387,
        -0.0017192899249494076,
        0.010162428952753544,
        -0.025350555777549744,
        0.044431041926145554,
        -0.13814005255699158,
        -0.005583381280303001,
        -0.026221562176942825,
        -0.0837060734629631,
        -0.06621555238962173,
        0.0039071254432201385,
        0.12884877622127533,
        0.21832937002182007,
        0.022516915574669838,
        -0.049771491438150406,
        -0.033482830971479416,
        -0.06664937734603882,
        0.039191678166389465,
        0.7227773666381836,
        -0.10277307778596878,
        -0.005077851936221123,
        -0.000767551246099174,
        -0.14204561710357666,
        0.03250637277960777,
        -0.18575459718704224,
        -0.0757807269692421,
        -0.19206690788269043,
        -0.027461357414722443,
        0.08274480700492859,
        -0.1708473265171051,
        0.10392361134290695,
        -0.0650113895535469,
        -0.00837181881070137,
        0.2832208573818207,
        -0.14178869128227234,
        -0.0411609448492527,
        0.1541491001844406,
        -0.006326107773929834,
        0.005665089935064316,
        0.001602757372893393,
        0.21836386620998383,
        0.003117739222943783,
        -0.0046284073032438755,
        0.02587495930492878,
        -0.022590234875679016,
        0.005097148474305868,
        0.00044898581109009683,
        0.003852610941976309,
        0.0032790096011012793,
        -0.09722746163606644,
        -0.07045979052782059,
        -0.029567033052444458,
        0.06685832887887955,
        -0.055690985172986984,
        -0.1502227932214737,
        0.3082083761692047,
        0.07625292241573334,
        0.028158966451883316,
        0.07420919090509415,
        0.017779843881726265,
        -0.01657244563102722,
        -0.0030939525458961725,
        -0.0042335400357842445,
        -0.007448605261743069,
        -0.03738311305642128,
        0.004225923214107752,
        0.003699447261169553,
        -0.0035051654558628798,
        -0.0031821781303733587,
        -0.11378758400678635,
        -0.068979412317276,
        0.05980732664465904,
        0.060394782572984695,
        0.08769016712903976,
        0.044184524565935135,
        -0.001042066258378327,
        0.20290914177894592,
        0.08503612130880356,
        -0.030651580542325974,
        3.1981275242287666e-05,
        0.001960459863767028,
        -0.028027286753058434,
        -0.005391061305999756,
        -0.0457451194524765,
        -0.06409120559692383,
        -0.14547625184059143,
        -0.036576151847839355,
        -0.17042647302150726,
        -0.15476274490356445,
        0.155586838722229,
        0.031040210276842117,
        -0.1729997843503952,
        0.03862835839390755,
        -0.13341771066188812,
        0.11353962868452072,
        -0.204245924949646,
        0.05965615436434746,
        0.057670753449201584,
        -0.03864552080631256,
        0.32290366291999817,
        0.09519537538290024,
        -0.005547491833567619,
        -0.03275143727660179,
        -0.06339024752378464,
        0.009684654884040356,
        0.028649866580963135,
        -0.08150839805603027,
        0.015015855431556702,
        0.14657942950725555,
        0.16461580991744995,
        0.04880082234740257,
        -0.13300734758377075,
        -0.17031113803386688,
        -0.19375069439411163,
        0.4271319806575775,
        0.012602154165506363,
        -0.13590092957019806,
        -0.09231281280517578,
        0.3521021902561188,
        0.6821957230567932,
        0.055783893913030624,
        -0.0353643074631691,
        -0.03495507687330246,
        -0.2509925365447998,
        -0.04737888649106026,
        0.04968554899096489,
        0.0008109454065561295,
        0.016003534197807312,
        0.12251672893762589,
        0.11697032302618027,
        0.414248526096344,
        0.19977174699306488,
        -0.1268174946308136,
        0.06564141064882278,
        -0.10829217731952667,
        -0.016238626092672348,
        0.745690107345581,
        -0.11711617559194565,
        0.013499057851731777,
        -0.009528910741209984,
        -0.18231327831745148,
        -0.025274889543652534,
        -0.11868765950202942,
        -0.040470022708177567,
        -0.017986975610256195,
        -0.31595638394355774,
        -0.060690902173519135,
        -0.04532017186284065,
        0.6182830929756165,
        -0.014686882495880127,
        -0.10923358052968979,
        0.5287840366363525,
        -0.23181626200675964,
        0.017142247408628464,
        0.36023014783859253,
        -0.003573025343939662,
        0.003037444781512022,
        -0.0011006264248862863,
        0.016350960358977318,
        -0.012453541159629822,
        -0.003505963133648038,
        0.0050061289221048355,
        -0.2455565184354782,
        0.005317680072039366,
        -0.006045668385922909,
        0.003502344014123082,
        -0.0053077563643455505,
        0.0007447144016623497,
        0.019507260993123055,
        0.03862009942531586,
        -0.0047030970454216,
        0.0336550809442997,
        0.035511914640665054,
        0.28052422404289246,
        0.09787232428789139,
        0.016327539458870888,
        0.03438681364059448,
        0.018998442217707634,
        0.3940173089504242,
        -0.007596578914672136,
        0.004183616954833269,
        0.006586689036339521,
        -0.25350022315979004,
        0.007184295915067196,
        0.003051294945180416,
        -0.0020632187370210886,
        0.004836107138544321,
        -0.14017628133296967,
        -0.0423053614795208,
        0.40197890996932983,
        0.1874006986618042,
        0.07191187143325806,
        -0.0622861385345459,
        0.06549586355686188,
        0.00012801005505025387,
        -1.2256364822387695,
        -0.012417687103152275,
        0.0022797579877078533,
        0.004792169202119112,
        -0.01256901491433382,
        -0.0026974049396812916,
        -0.02266845479607582,
        -0.030130863189697266,
        -0.20784379541873932,
        -0.055588144809007645,
